{
  "weights": [
    -0.007921049522326834,
    0.017338474958933574,
    -0.009157923111517655,
    -0.002591679757671948,
    0.00250540228861976,
    -0.002576820948938467,
    -0.0032410365906579194,
    0.0008742775724969433,
    0.011824805921061674,
    -0.00950847764625577,
    0.0022958950165592766,
    -0.0028450888205421403,
    -0.0009195911094718322,
    0.001518869304060696,
    0.0009690439069002303,
    -0.0062271597203475875,
    -0.0025600741717894736,
    0.011073597139403531,
    -0.004969471531421489,
    0.0032274414905329985,
    -0.01076397406921056,
    0.005159801037730061,
    -0.0004969660968178115,
    0.006446888476556052,
    0.011498358820111005,
    -0.000349723454352556,
    -0.015057296366842008,
    -0.007333273836460745,
    -0.0033372926935335175,
    -0.0074830282495534995,
    -0.007822773448978429,
    0.018138287202261523,
    0.002479049180098308,
    0.001119244752014779,
    0.04527641923772426,
    0.05211520241262871,
    0.10024028428308052,
    0.1019412819367411,
    0.005394103799999543,
    -0.033199773797520093,
    0.41324144505636146,
    0.0,
    -0.006418119315542963,
    0.09140362439335148,
    0.6734792083077386,
    0.0416065221266322,
    0.019473232705986734,
    0.0874522160969296,
    0.009670077387671948,
    0.009195274638177793,
    0.028045588443596076,
    -0.04566648182710409,
    0.02407041307248927,
    0.021423258721145325,
    -0.008115468418506367,
    -0.003875720523329838
  ],
  "bias": 8.911785274238505e-06,
  "best_loss": 0.028845390311103617
}