{"weights": [-0.0081005911877115, 0.016624645612791818, -0.008470857705532997, -0.0012010344806988997, 0.001981134377376331, -0.004150355663908219, -0.0031444725002898345, 0.0029486294266185603, 0.01278970024708006, -0.0032771001129679282, 0.002067039979792328, -0.006700817248418551, -0.002249253609011877, 0.009072844538540695, -0.003727837184859801, -0.0031094070786439817, -0.005453028638714495, 0.009277817206113757, -0.0007560731786869223, 0.005003928160479116, -0.014999273989599497, 0.0017906582004669335, -0.002160329493084358, 0.0053681359787640485, 0.012721059521808586, -0.005335581421431261, -0.009846275256555653, -0.009075648170291026, -0.003358087591541364, -0.006427682935458347, -0.00928949240254197, 0.01838738182254703, 0.0033826440355265025, 0.0028447790305146724, 0.03959945719296569, 0.054680916766404734, 0.09854134114662999, 0.09562463260088085, 0.008376225120368693, -0.025299004191573764, 0.39545378325519115, 0.0, -0.0003053142967428996, 0.08975649545620408, 0.6837595382932704, 0.031664523075660346, 0.015903558168375347, 0.08516546666244379, 0.006701710625781248, 0.0014904398978321921, 0.024990034178939417, -0.05512224307654969, 0.03473421913788837, 0.025655922754524257, -0.014597789735645902, -0.004046177979885756], "bias": 1.79435578663125e-05, "best_loss": 0.02849433806949393}