{"weights": [-0.0048031318668299, 0.017680835443022194, -0.012739498187667063, 0.002117250514796319, 0.0019454608337613395, -0.006563713915614298, -0.0022644537476233253, -0.003439474927272783, 0.013844278050392034, -0.008855452561441537, 0.002362596867966991, 0.0019834500182947593, -0.003724319313172094, 0.009485702546227109, -0.0007613350567795895, -0.0036004917805381397, -0.0009767243623953431, 0.01217159057216459, -0.0013984481010462686, 0.0004842939590274628, -0.013856234585797989, -0.00015005009545160464, -0.0010818951116928312, 0.002155080373705297, 0.01142843556500792, -0.0037190052420995913, -0.011110433824721664, -0.005504736078991193, -0.008802859631383895, -0.003971743602924564, -0.00892228586156684, 0.017097719334727656, 0.0036762958635784115, 0.004359010932296102, 0.04783010185447044, 0.05692977259783286, 0.09911726966507037, 0.0995971773079929, 0.008009785133987934, -0.027140006997213882, 0.4033687580970277, 0.0, -0.002466833538156893, 0.08962004279569355, 0.6728059997254278, 0.03368720053842137, 0.01704761672368119, 0.09017083240597999, 0.0044399536930036084, -0.01304949566052745, 0.01540671800411381, -0.0428948108972011, 0.030010579847757155, 0.03453417800887922, -0.014824819233712679, 0.0006943293047692958], "bias": -5.603340508009884e-06, "best_loss": 0.029305492650490664}