{"weights": [-0.01233218783202312, 0.0173790535885837, -0.004729098152651005, -0.001786228178636956, 0.0028172816061082413, -0.0018606085929289288, 0.000713335619202917, 0.0027643941943130174, 0.015343177455027866, -0.0075375320341109315, 0.001534573332764655, 0.00036319105436064165, -0.005268944447657059, 0.009793870731079473, -0.003196913416342926, -0.0034198620526562458, -0.006772668164462059, 0.007468819925997004, 0.0005690183288881979, 0.004212272827248389, -0.011532583186268725, 0.0011069670017338736, -0.004498180555517912, 0.0032372664269581346, 0.012889453106812923, -0.006414613249091689, -0.01340203162643161, -0.009886345903818223, -0.0053302070967351746, -0.004865430328721903, -0.003494212559093893, 0.016604523122142688, 0.0012306991504006176, 0.0022832907166452122, 0.04384029781006929, 0.052812051668860716, 0.10937904720519903, 0.10019095849778557, 0.009237038380368013, -0.023933634457924787, 0.4064718060309246, 0.0, -0.000620433922223671, 0.09088076529910492, 0.6732583850987137, 0.04163564479142454, 0.014388721087352264, 0.08915503084794989, 0.008528802432822738, 0.01257982075125095, 0.031124333009419032, -0.04487027158626151, 0.019106520271826306, 0.025518638215949737, -0.018661982747693963, 0.0012675022805041104], "bias": -2.9536294496383175e-05, "best_loss": 0.029194910595049764}